{
  "bestBrain": {
    "levels": [
      {
        "inputs": [
          0,
          0,
          0,
          0.21936238757530968,
          0.5775219685283193
        ],
        "outputs": [
          1,
          1,
          1,
          0,
          1,
          0
        ],
        "biases": [
          -0.20629793813398048,
          -0.2210915054236656,
          -0.3895036832149269,
          0.3573555180338202,
          -0.6662681475665537,
          -0.03333825382590819
        ],
        "weights": [
          [
            -0.21741869742996445,
            0.17349813337868075,
            -0.48720060852654135,
            -0.13430968259801968,
            -0.6321188169614848,
            -0.29804846871954227
          ],
          [
            -0.1574106545693726,
            -0.07922703071426113,
            -0.651450166847404,
            -0.29129964990153057,
            0.04902484117120143,
            -0.4596950605671963
          ],
          [
            0.013701268567926306,
            -0.36435789671531155,
            0.4061397750507947,
            -0.3523783311166237,
            -0.20046527196874567,
            -0.4898872445002894
          ],
          [
            -0.06503157945957933,
            -0.2857154259705121,
            -0.2944957879455186,
            -0.37469514262235126,
            -0.26987875510059606,
            0.2547643617421933
          ],
          [
            0.6655618329944603,
            -0.244211070034012,
            0.06385513197202752,
            -0.06195657874860702,
            -0.10365507964127399,
            -0.24975339503036062
          ]
        ]
      },
      {
        "inputs": [
          1,
          1,
          1,
          0,
          1,
          0
        ],
        "outputs": [
          1,
          0,
          0,
          0
        ],
        "biases": [
          -0.3589150749758906,
          -0.29734221443422587,
          -0.3744993381702322,
          0.04245835692697272
        ],
        "weights": [
          [
            0.14260101187630764,
            -0.23499973388051354,
            -0.5218390499565391,
            -0.3481456954573666
          ],
          [
            0.22512828127379314,
            -0.3648933698215899,
            -0.001524098035529331,
            -0.2206116126806234
          ],
          [
            0.30995658106091534,
            0.29535349574738423,
            0.2669906801527051,
            -0.2006030030130861
          ],
          [
            -0.1738422865040938,
            0.375208691313206,
            0.05932037165700266,
            -0.03591392955903394
          ],
          [
            -0.5034307226781698,
            -0.21649602050836983,
            -0.33937445184893544,
            -0.28918630882871843
          ],
          [
            -0.2227665291704233,
            0.38090779573568934,
            0.24445861192111895,
            0.5597523716465955
          ]
        ]
      }
    ]
  }
}